{"architecture":{"output_dim":6,"hidden_dim":16,"input_dim":6},"weights":{"layer2_b":[0.0,0.0,0.0,0.0,0.0,0.0,0.0,0.0,0.0,0.0,0.0,0.0,0.0,0.0,0.0,0.0],"layer3_W":[[0.3426415,-0.3634903,-0.10932993,0.09465276,0.41386315,0.8094899,-0.8170022,-0.14172415,-0.026619446,0.10316923,-0.6630043,-0.36310333,0.10748072,0.2855788,0.11363925,0.82238317],[-0.39310092,-0.4109411,-0.11809109,-0.4481319,-0.26954088,-0.45365644,-0.16341989,-0.43453586,-0.36158854,-0.5080996,-0.18114461,-0.1497497,-0.18851276,-0.107414156,-0.1573146,0.37371933],[0.5244576,-0.4112986,-0.21004643,0.4656632,-0.03617245,0.95200145,0.22014922,-0.19393979,0.26755732,-0.19344251,0.6733856,-0.17547433,0.29707798,-0.2267443,-0.16648111,0.39712447],[-0.14075007,-0.11993841,0.45128053,-0.016316125,1.1344432,-0.002943818,-0.3266941,0.33058622,0.21277325,0.08994654,0.06494358,0.0056248126,0.13515632,-0.24987024,0.49036017,-0.1953617],[0.50634104,0.21102789,-0.055604223,-0.06927132,-0.097407505,-0.16501693,-0.05242355,-0.4479952,-0.18242529,-0.54508144,0.2640155,0.6615789,0.110514,-0.079236194,0.16091505,0.09754645],[-0.039307002,-0.10068659,0.6846226,-0.40284145,-0.08991148,0.59074205,-0.049297567,0.055621482,0.36703646,0.26860133,-0.25314623,-0.24508399,-0.03624158,-0.21310063,-0.066506855,0.9134347]],"layer2_W":[[-0.10580773,0.07990464,0.79252577,0.17565097,-0.2354259,0.25059757,0.4403154,-0.089866675,0.44023892,0.08753815,-0.021312466,0.32923207,-0.48354194,-0.91032547,-0.1727436,0.5853818],[0.5887045,0.19624715,-0.35771555,0.19660318,-0.31873286,0.17604557,-0.2832462,-0.108775236,-0.14905697,-0.3192738,-0.25873682,0.07407918,0.60622364,-0.07334578,-0.27869523,-0.2696072],[-0.4927206,-0.43337783,0.2299127,0.23342256,-0.076561034,-0.5356071,0.0787304,-0.5417063,-0.19404323,-0.14990333,0.04746081,-0.13897265,0.3291033,0.1576285,-0.23715736,0.5253734],[0.03860849,0.31749827,0.06032227,0.3127743,0.55954945,0.06689174,-0.3614139,-0.05724015,0.12168541,-0.13556026,-0.38519585,0.041649345,-0.682667,0.2962748,-0.047876142,0.10602716],[0.11875907,-0.17721151,-0.2705581,-0.68427384,-0.5576796,-0.053170618,0.2677231,0.37007645,-0.45554477,0.33415058,0.15395252,-0.4021522,0.32947892,0.28929973,-0.108035274,-0.059093416],[-0.36879313,-0.38179705,-1.1130488,-0.2788155,0.4051452,-0.11416208,-0.08125129,0.27137434,-0.44347137,0.12729226,-0.0023587612,-0.2811696,0.3470383,-0.25674322,-0.057493206,-0.127455],[-0.16885635,0.16692403,0.56832594,-0.44450793,-0.3453483,0.3588575,0.40942398,-0.23547332,-0.5223249,-0.546802,-0.004835157,0.14851022,0.757385,0.533513,-0.32647946,0.07886715],[-0.28164923,0.07598745,-0.41212368,-0.34868616,0.2661645,-0.28639278,-0.39438564,0.15938374,-0.41037592,0.053188205,-0.02674936,-0.55509216,0.13223155,0.24340954,0.90549636,-0.10190241],[0.21710849,0.85796237,0.005712215,-0.12867075,0.18644927,-0.2451564,0.010341491,0.2969242,0.060958717,0.16155408,-0.33299014,0.090757325,0.14991666,0.22196029,0.07133925,-0.076185755],[0.07715244,0.3129318,0.005177769,0.16811383,0.38145396,-0.09394933,-0.031903647,0.67578536,-0.21871692,0.8410685,0.37593594,-0.009766719,-0.4125134,0.13782242,-0.012843741,0.097668305],[0.16761474,-0.12112625,0.07039754,0.32300165,0.30643603,0.18955226,-0.49475467,-0.34148479,0.13828714,0.10844716,0.17055495,0.15921581,-0.06595119,-0.47238228,0.39673147,0.27695674],[0.59015477,0.2680361,-0.39417142,0.27533564,-0.47017634,-0.31309062,0.15081854,-0.2769852,0.39433432,0.013030825,-0.28693768,0.7157032,0.8587095,-0.11314877,0.02379124,-0.13808988],[-0.8372429,0.5082909,0.2677857,0.539742,0.13900866,0.18866955,0.5541453,0.5392615,-0.123732716,-0.26314932,-0.10306454,-0.40429893,0.37825662,-0.46799144,0.08696254,0.39440674],[0.314904,0.3839516,-0.25497532,0.9758936,-0.27483732,0.10674,-0.00027368392,-0.09296964,-0.19038732,0.3201605,0.2518087,0.051607072,-0.800721,-0.24611506,0.1817372,0.7340887],[-0.3046945,-0.12567757,0.03342503,0.4639924,-0.057942666,-0.20969108,-0.10151106,-0.4296515,0.24189831,0.33458167,-0.11739801,0.4104861,0.45679456,-0.22909768,-0.57267445,0.01793747],[0.68215615,-0.14973673,-0.042369038,0.10581658,-0.12099968,0.22152647,0.15767045,-0.040132713,0.049810663,-0.07004288,-0.22189897,0.15060571,0.081131585,-0.23154457,0.50308365,0.165541]],"layer1_b":[0.0,0.0,0.0,0.0,0.0,0.0,0.0,0.0,0.0,0.0,0.0,0.0,0.0,0.0,0.0,0.0],"layer3_b":[0.0,0.0,0.0,0.0,0.0,0.0],"layer1_W":[[0.45198166,-0.50444233,-0.5009651,-0.42039126,-0.40258405,-0.04161279],[-0.5233992,0.36212218,0.82482886,-0.2030534,0.45643717,-0.6738662],[-0.34020647,0.24630284,0.54599094,0.07403838,-0.16900039,-0.21457636],[0.6705069,0.14725691,0.115194775,0.6500897,0.16614208,-0.87766385],[0.1252143,-0.34921953,0.3720559,0.7658834,-0.38178694,-0.57653147],[0.46352616,-0.21828996,-0.11845586,-0.17815632,-0.023204299,0.060067408],[-0.553537,0.5536347,0.75163513,0.23172268,0.6868167,-0.70466363],[0.83709407,-0.021442836,-0.41046265,-0.5498324,0.54743385,0.2170416],[-0.14755064,-0.6711041,0.53360933,0.30213732,-0.053382188,0.08900806],[-0.16072571,-0.48319444,-0.11633078,-0.16427484,-0.13287352,0.605287],[-0.65799516,-0.77901727,-0.631885,-0.30014542,-0.067577064,-0.15102172],[0.7926743,-0.291456,-0.6200104,1.0559987,-0.26536965,-0.094767645],[0.41292045,-0.10468528,-0.32203972,-0.8387006,-0.09367439,-0.8797848],[-1.3702594,1.0156274,0.42877463,-0.7369988,0.39618427,0.35359317],[-0.18090042,0.43532637,-0.29974353,-0.37762567,-0.38447398,-1.1624945],[-0.31221288,0.12659712,0.3443936,0.0024575503,0.5883837,-0.6401623]]},"agent_map":{"0":"Chronicle","4":"Scout","5":"Veritas","2":"Codex","3":"QA","1":"Cipher"}}