{"architecture":{"output_dim":7,"hidden_dim":16,"input_dim":98},"weights":{"layer2_b":[0.0,0.0,0.0,0.0,0.0,0.0,0.0,0.0,0.0,0.0,0.0,0.0,0.0,0.0,0.0,0.0],"layer3_W":[[0.4944901,-0.23950754,-0.3424307,0.40954745,-0.24471307,0.45333484,0.6003937,0.10330544,0.76118225,0.07567724,-0.34336972,0.8244729,0.13354799,0.34231752,0.3650832,0.44896817],[0.005388826,0.5725204,0.29430065,0.15411745,0.39294237,-0.03697973,-0.21629839,0.28147873,-0.045218192,0.20261528,-0.9424508,0.15735316,-0.32071552,-0.13948552,-0.51159143,-0.63438135],[0.0291253,-0.030716889,-0.32511988,0.6015303,-0.23742801,0.023808906,0.3313275,0.07955896,0.7226623,0.07562346,-0.12668818,-0.12833574,-0.13447365,-0.26270232,-0.1318704,-0.18585801],[0.10380193,-0.74365574,-0.6837066,0.2573895,-0.525068,-0.20411801,-0.3337912,0.08848376,0.055049628,-0.17450902,0.0707011,-0.42315233,0.25115773,-0.28649777,0.15996161,-0.27768356],[-0.64309466,0.015624629,0.028922595,0.1133068,0.37206435,0.17999204,0.39981562,0.2609006,-0.23817632,0.2932672,0.57832485,0.17862315,-0.6289477,-0.2313543,-0.12438573,0.0771732],[-0.6692788,-0.20745568,-0.25161254,0.08280851,-0.6789892,-0.1778091,-0.4921823,0.02411523,-0.56004024,0.110040374,0.41732422,0.13335317,0.08778223,0.18151872,0.15386821,0.20125683],[-0.29711562,-0.22564724,0.28084323,0.06444168,-0.2540018,0.033516403,-0.3010259,0.13305202,0.001877734,0.15446822,-0.21624279,-0.25724512,0.09034662,0.05744257,0.48410094,-0.016336532]],"layer2_W":[[0.43597522,0.5693085,0.09293278,0.10514235,-0.10362652,-0.030994209,-0.032260098,-1.2109399,0.1365593,0.3066161,-0.3855318,0.3607608,0.0981344,-0.09930917,0.7914443,0.015837489],[0.23176524,-0.05110029,-0.089913085,0.29440245,-0.32696626,0.22255334,-0.30966085,0.39472368,-0.1740716,0.1090139,-0.42665812,0.26763093,0.3669343,-0.6467252,0.046285268,0.117796935],[0.37472332,0.088859566,0.24207461,0.025589524,0.67251647,0.3523417,0.66492736,0.12559442,0.10806428,-0.339096,0.003147412,0.08911349,-0.17780004,0.761073,0.6619009,0.5232524],[0.09565799,-0.18660775,0.55531317,-0.24764434,0.42252904,0.37124428,-0.079455696,0.54066384,0.059322383,-0.2220302,0.45541835,0.7357661,-0.33581346,-0.4350505,-0.28412077,0.1041865],[-0.6600791,-0.73012626,-0.43556973,-0.33838403,0.051761437,-0.0029951294,0.10491154,-0.19483358,-0.2340691,-0.012736705,-0.28375596,0.39485922,0.07014042,-0.19209749,0.20690164,0.041753765],[0.39770705,-0.3745392,0.70383775,0.03421569,-1.0145041,0.17004484,0.18677096,0.046236567,0.086831935,-0.54512185,-0.0066046175,-0.034282513,0.18889919,0.11668721,-0.14160597,0.12842548],[0.15437368,0.15593395,-0.26934245,-0.08875372,0.27348977,0.109949484,0.049838524,-0.29807878,-0.42735326,0.15892507,0.4440349,0.09373761,0.25123778,-0.5565838,-0.10440985,-0.00058138097],[0.1768265,-0.21038915,0.26705632,0.070903964,-0.46641135,-0.29249296,-0.1791169,-0.11940693,0.14322655,0.3840055,-0.016301394,0.030413868,-0.048317082,-0.61100173,-0.662843,0.06344628],[-0.12738207,-0.008819897,-0.24005109,-0.6283661,0.071698435,0.18228601,0.474427,0.21922332,0.29091033,-0.3382625,-0.095130384,0.27991357,0.33180285,-0.45341578,0.5303365,0.26268572],[0.17536438,0.12748538,0.5552742,0.44877204,-0.12357209,-0.36233827,0.81976837,0.471531,0.15475027,0.06378776,-0.07305902,-0.46856117,0.1701145,0.44171906,0.16728675,0.22727598],[0.038593847,-0.19420965,0.037791956,-0.12400577,-0.31232834,0.0036159917,0.3836511,-0.16983855,-0.25896537,0.034183525,-0.17802936,0.015794152,-0.018478129,0.2700222,-0.5957457,-0.061576292],[-0.1298653,-0.66544795,0.26424566,-0.6346655,-0.15481329,0.1978446,0.05486029,-0.22116813,0.6463234,0.1510247,0.5517327,-0.81335825,0.41455874,-0.5640354,0.111567184,0.18006687],[-0.41626894,0.2672484,0.13216633,-0.11037883,0.6755686,0.46911007,-0.26245177,0.26547194,0.1047378,0.58163136,-0.2707571,-0.2820679,0.69334495,-0.23765934,0.15504934,0.41366082],[-0.24611904,-0.29780576,0.16632918,-0.026856894,0.9513997,0.3980909,-0.4921188,-0.12570551,0.15999335,-0.34165877,-0.3614225,-0.2547223,0.5831646,-0.120197825,-0.55538756,-0.086610235],[-0.16484134,0.12126817,-0.36370656,0.74131745,-0.75182724,-0.27356797,-0.06860575,-0.02755034,-0.02095103,-0.08154445,-0.2505259,-0.83364224,0.15348437,0.36935443,-0.37824368,0.05776429],[-0.007838943,0.5190162,0.39557868,0.025708528,-0.29425967,-0.066351704,-0.098378524,0.41754574,-0.24366544,0.048511732,-0.6250303,0.4517804,0.11535289,-0.024086751,0.12844239,-0.005604603]],"layer1_b":[0.0,0.0,0.0,0.0,0.0,0.0,0.0,0.0,0.0,0.0,0.0,0.0,0.0,0.0,0.0,0.0],"layer3_b":[0.0,0.0,0.0,0.0,0.0,0.0,0.0],"layer1_W":[[0.11200436,-0.12500453,-0.12414282,-0.10417603,-0.099763274,-0.010311952,-0.12970215,0.08973653,0.20439868,-0.050318126,0.11310846,-0.16698898,-0.08430566,0.061035648,0.13530052,0.018347248,-0.041879535,-0.053173605,0.16615658,0.036491342,0.028546117,0.16109699,0.041171234,-0.21749154,0.031029027,-0.08653918,0.092198156,0.18979153,-0.09460961,-0.14286874,0.11486519,-0.054093853,-0.02935423,-0.04414844,-0.005750194,0.014885144,-0.13717052,0.13719472,0.18626072,0.057422582,0.17019822,-0.17462082,0.20743805,-0.0053136926,-0.101715654,-0.13625252,0.13565813,0.05378451,-0.036564134,-0.16630454,0.13223234,0.07487184,-0.013228502,0.022056852,-0.03982901,-0.11973914,-0.028827623,-0.040708505,-0.032927033,0.14999461,-0.16305605,-0.19304618,-0.15658575,-0.07437823,-0.016746094,-0.037424296,0.19643052,-0.07222494,-0.15364313,0.2616842,-0.06576056,-0.023484115,0.10232472,-0.02594178,-0.079803795,-0.20783618,-0.023213204,-0.21801713,-0.3395603,0.25167993,0.10625351,-0.18263374,0.09817738,0.087622985,-0.044828452,0.10787707,-0.07427863,-0.09357843,-0.09527548,-0.2880747,-0.077368654,0.031371694,0.085343264,0.00060899893,0.14580579,-0.15863691,-0.042816956,0.032334827],[0.3207096,0.07108029,-0.095269255,0.10140875,0.17818141,-0.036366142,0.17815049,0.035423864,-0.008624467,0.13322958,-0.19567382,-0.36837927,-0.06990375,0.23688512,0.23822974,0.079414874,-0.14475593,0.07955896,-0.12898092,0.07123995,-0.114620574,-0.044017825,-0.06031853,-0.12919982,-0.10470241,0.029977454,0.24531908,-0.02968067,-0.112778954,-0.10910133,-0.19938815,-0.17537402,0.093038246,0.09445857,-0.030981777,-0.2167429,0.031859644,-0.21921104,-0.07852303,-0.06066103,0.019205855,-0.05623774,0.13317747,0.063787155,-0.09596993,0.21260166,0.0156236105,0.1284813,0.024410473,0.12656967,0.22643153,0.027068919,-0.14625251,-0.023163231,0.049242157,-0.054856863,-0.15587632,0.016854143,-0.27625328,0.119892806,-0.019373925,0.042905763,0.04805796,-0.07171178,-0.1094861,-0.27690357,-0.22567491,-0.021516435,0.108338915,0.14975798,-0.18434422,0.13521992,0.06229962,-0.16273801,0.13332944,0.11707026,-0.043718383,-0.023913197,-0.14923869,-0.15450092,-0.45041484,-0.112827614,0.16394915,-0.04619771,-0.032879777,0.10981642,-0.17945854,0.051511064,-0.00095451425,-0.11378023,0.14043517,-0.103895694,-0.02326564,-0.051576924,-0.06833072,0.06754877,0.22998314,-0.17987798],[-0.1397513,0.14521804,0.16568068,-0.09528845,-0.21136804,-0.22127315,-0.0019566317,0.060097273,0.30648923,0.21589546,-0.13211569,0.031914994,-0.11397433,0.03074967,-0.16677313,-0.14110203,0.10770818,-0.115893915,-0.15959513,0.06449745,-0.16606586,0.021523546,-0.0108246,-0.22462787,0.053509835,0.09849997,0.3664251,-0.041236613,0.08785678,0.34718966,0.0023115491,-0.052068897,0.07545,-0.09920689,0.0041848663,0.12015562,0.024668023,0.06537573,-0.13475034,0.036726564,0.060666423,0.08982017,0.028868686,-0.030829914,0.0312211,0.1266334,0.0020952758,0.06803023,0.1543621,-0.03801826,-0.012910374,0.27346846,-0.088507675,0.3403533,0.15212913,-0.0039522755,-0.16693087,0.05577227,-0.0051974477,0.039523207,0.06782826,-0.049015876,0.02848761,0.13070834,0.124004796,0.07670569,-0.20021126,-0.13818786,0.05596033,0.043885063,0.06901807,0.0644295,-0.026688319,-0.19115785,0.16054441,0.11207547,0.23881656,0.108465575,-0.15950844,0.11141944,-0.19026518,-0.12669764,0.061031386,-0.112086974,0.15957437,0.0052731545,-0.11611443,0.28962198,0.347492,-0.04578765,0.009627547,-0.055880513,-0.33880517,0.20568891,0.10836421,0.21841617,0.056252304,0.076348476],[0.2242447,0.21822177,-0.050070617,-0.106488004,-0.04170689,-0.16360669,0.15306823,-0.18938103,0.035190936,0.15960366,0.12743147,0.15537281,-0.103180274,0.3949126,-0.1112178,0.043194227,-0.000110751054,-0.03762182,-0.07704359,0.12955862,0.10189886,0.020883713,-0.32402593,-0.099594824,0.07354317,0.29706198,-0.12330004,-0.050857645,0.013526032,0.1877627,-0.023447527,-0.084855214,-0.041078243,-0.17386611,0.09788844,0.13539441,-0.04750718,0.16611044,0.18485,-0.0927084,-0.23174286,0.007258715,0.27604654,-0.060593616,-0.017145382,0.042820543,-0.048964664,0.089644596,0.063804135,-0.016240414,0.020156767,-0.02834409,-0.08979536,0.060945258,0.03283133,-0.09369861,0.2035817,0.06698908,0.13865595,-0.14709276,-0.044242293,0.038302913,0.16747706,0.3275744,-0.33061433,-0.057351187,-0.010772033,0.041749254,-0.26829648,-0.14693621,0.043493975,0.11556451,0.045986142,0.33279186,-0.15907526,-0.16629456,-0.047787644,-0.18134448,-0.10907447,-0.1835801,-0.06613075,-0.17584261,-0.14632323,-0.2056115,-0.07330338,-0.06059886,-0.07628503,-0.043467045,-0.06366013,0.15123212,0.21223108,-0.16643928,-0.084999,0.18843886,-0.014637823,0.38524425,0.08908727,-0.07848118],[0.10827182,-0.07827994,0.2724974,-0.071008794,0.12021784,-0.09175609,-0.06736953,0.16070344,-0.056957003,-0.0485352,0.18261868,-0.0066026077,0.45907244,-0.0011912679,-0.13220254,0.13377756,0.086102456,0.03639846,0.026280569,0.00227618,0.054693393,-0.1011144,0.19843292,-0.07905657,0.20489985,0.085396186,-0.02250123,-0.028031861,-0.039417673,-0.066777006,-0.021214122,-0.1812892,-0.07382165,-0.22057685,0.106838524,0.26771954,0.04472145,-0.03206433,0.06511711,0.039473902,-0.015906274,-0.040744606,0.27704462,-0.16301692,-0.03638427,0.23905423,-0.019949134,0.022508217,0.14852777,0.10869429,-0.10244012,-0.09917757,-0.014665796,-0.08623493,-0.026913177,0.36963764,0.0086031305,0.17788279,-0.123792194,-0.18663666,-0.027864302,0.001221398,-0.02507034,-0.2030859,0.03885806,-0.15315591,-0.034892958,0.13633783,0.22373664,0.057889484,0.03563411,-0.13394628,0.07738667,0.13653986,0.024498736,0.0018368931,0.18027754,0.088136464,0.059952248,-0.07290281,-0.19896095,0.1756489,0.08903572,0.06103287,0.07884737,0.061227523,0.21706878,0.03949705,0.107888505,0.077278115,-0.001604604,-0.0704527,0.005337706,0.10904721,0.16560102,-0.08405338,-0.1287668,-0.104351126],[0.1042752,-0.066932395,0.09553784,0.013423316,0.1605313,-0.01399332,-0.07743161,0.038378924,0.03359107,0.11347001,0.0015362186,0.19906849,0.13256945,0.23641017,-0.008410271,0.024440894,-0.07944906,0.054320402,4.7897272e-5,0.06740189,-0.057173163,0.015787242,-0.025192827,-0.01896151,0.24920419,-0.028692883,0.2118825,-0.23419598,0.17042406,-0.10616006,-0.059606194,0.08371936,0.0176846,-0.026059888,0.004041463,0.0896817,-0.10863653,-0.08819927,0.10896756,0.11245487,0.17497228,-0.201601,0.030017087,0.091884874,-0.14369316,0.04538871,0.19796674,-0.13195387,0.055117227,0.15571849,0.089365855,0.1491059,-0.29793972,-0.01677261,-0.20509103,-0.02791039,-0.08623383,-0.139573,0.12644134,0.12428449,0.18698685,0.17730096,0.1099679,0.13559113,0.018386988,-0.24902245,-0.056328084,-0.06647447,0.12552725,-0.07369636,0.18169603,0.049845334,-0.10261544,-0.08193157,0.13379167,-0.007182045,0.14911607,0.06807811,0.15860644,0.29108217,-0.17923166,0.028134188,-0.061209835,0.19882827,0.17614688,-0.012242678,0.048332587,-0.052852936,0.054919787,0.22975725,-0.074478775,-0.073442765,-0.028536728,-0.13938326,0.2473422,0.03809129,0.17285798,0.0030542198],[0.36449018,0.101460755,-0.0589957,-0.0062952284,0.06467715,0.106379814,0.0034056706,-0.032630116,0.08291012,-0.024903012,-0.10412691,0.046406895,-0.06222268,0.052562065,0.012267518,-0.18361953,-0.1333854,-0.10027634,0.19615407,0.1159147,0.092018105,0.04322834,0.024122821,-0.11438254,0.17309529,-0.21380553,-0.31215343,-0.03261964,-0.21963507,0.11962955,0.19020028,0.029115556,-0.070528336,0.31404406,0.1743077,0.1590558,-0.40007138,-0.33682576,0.03647358,-0.17303829,-0.18812396,-0.025024327,-0.097846575,-0.049745258,-0.21144597,0.15205474,0.1187416,-0.02644732,0.19474322,-0.12713626,-0.20034732,-0.025174465,-0.1585212,0.1828675,-0.1692311,0.027011817,-0.05790587,0.06664463,0.28523308,-0.0046945387,-0.123365864,0.035445224,0.0597998,-0.16905248,0.11744664,0.022272442,0.079476535,0.09100359,0.022900509,0.15930583,0.086687036,-0.07278029,0.16181694,0.04296802,-0.038458027,-0.30091882,0.041318905,0.15214768,-0.09658314,-0.0953913,0.10722741,0.07105267,0.059271768,-0.2684262,-0.14457387,-0.19640385,0.060321383,0.036542587,0.014116415,0.11260443,-0.05290925,0.1744062,0.019727156,-0.16039051,-0.023734856,0.07831399,0.12907465,-0.0028808105],[-0.06439467,0.036821205,0.25768134,-0.053584747,-0.065488614,-0.0718149,0.11336626,0.053474296,0.004197167,0.027939754,-0.0028203733,0.1535477,-0.04633491,-0.0038608261,-0.04869854,0.15524599,-0.106508724,0.08298395,-0.18481356,0.07330842,-0.07379896,0.03262539,0.017895624,0.14209034,0.37899354,0.19942398,0.0018078247,0.18192913,0.062328927,0.17543373,0.12535405,0.20261888,0.01984379,-0.13806236,0.047751117,-0.20831954,-0.04240473,-0.12692504,-0.15853818,-0.062523015,-0.098496996,0.24656966,0.2681047,0.18550374,-0.11762805,-0.22291827,0.22619003,0.2545165,0.004771819,-0.048238184,-0.02510914,-0.077209555,0.12480885,0.04024434,0.048543476,-0.08991438,-0.13605744,0.14571455,0.045908388,-0.19353218,-0.28768277,-0.0921128,0.008487494,0.117374666,0.090635754,0.009332414,0.32092452,-0.058955695,0.050258223,0.11718407,0.03391884,0.15162733,-0.1161015,-0.07043646,-0.09796317,0.20128968,-0.13897403,0.0150072,0.035503797,-0.003872362,0.14975944,-0.15251867,-0.0394753,-0.116748914,-0.114382096,-0.113609605,0.0016871375,-0.24978109,-0.08707071,0.14227004,-0.069201775,0.15573317,0.2017973,-0.0256725,0.19808285,0.06917944,0.14846611,0.13234012],[0.18125966,0.060774814,-0.19032821,-0.000944717,-0.21024099,-0.2273517,0.08949864,-0.0056524933,-0.08336383,0.07995269,-0.16667567,-0.088902794,0.4125176,0.11664629,-0.2251593,-0.15201914,-0.0715787,-0.007381398,-0.07850792,0.15145399,-0.2207101,0.004114123,0.06449575,0.12389107,-0.115961075,-0.13865694,-0.15265715,-0.17482415,0.23916222,-0.1261092,0.18281043,-0.07109775,-0.10803358,-0.036075152,-0.0048412276,0.055662535,-0.22634134,0.22579095,0.059361625,-0.016345067,-0.03585945,-0.13209014,-0.016277004,0.12218255,0.29110068,-0.02690207,-0.010670454,0.03645383,-0.15216912,-0.12510109,0.019578163,0.12594835,-0.022627277,0.031439763,-0.095394194,-0.11187587,0.04593794,-0.06776585,0.079902515,0.01930161,0.04824794,-0.07802096,0.1201105,-0.1128689,0.0622039,-0.1529813,-0.015212477,0.023345482,-0.11312835,0.00573124,0.40842262,-0.044041477,-0.13379587,0.20941524,-0.100617796,-0.05088583,-0.13250233,-0.13885958,-0.03694441,0.028826281,-0.1343277,0.1127717,0.0093311835,-0.08701526,-0.23861855,0.147851,0.048845027,0.062332265,-0.092269704,0.15370846,0.027942166,-0.030905621,0.06469516,0.025193656,-0.12204053,-0.013316836,0.33879948,-0.035000093],[-0.013865443,0.115584314,0.13560352,0.005546538,0.23781481,0.25458974,-0.10471409,-0.116007015,-0.038655907,0.2566067,0.4637469,0.0018068203,0.296722,0.14878532,0.23943946,-0.023026474,-0.027931122,-0.075814806,0.006576395,0.032676503,-0.21472645,-0.084078066,-0.029796086,0.16460821,-0.060433473,-0.10271542,0.15857638,0.15818806,-0.07535884,-0.05018198,-0.046712894,-0.060523216,-0.03271105,0.052685577,0.0564579,0.07351227,-0.0923167,-0.08356221,-0.22033203,0.08553592,0.17115995,-0.052357856,0.17080404,-0.020240225,0.22803709,0.086785644,-0.20924155,0.058095686,0.03276626,-0.09325419,-0.094017684,0.33248314,-0.12017063,-0.18017875,0.034109265,0.010196647,0.01341733,-0.056746904,-0.011624341,0.26106265,0.16084512,0.26170897,-0.107440956,0.049118012,-0.080674976,-0.2968292,-0.06889678,0.17412204,0.1368023,0.07572337,-0.080576524,-0.10236842,-0.07006613,0.07852445,-0.10363789,0.14223376,-0.031246424,0.20931414,-0.0091743255,0.3141459,-0.06060474,0.14208046,-0.13926676,-0.106265716,-0.25129834,-0.27336106,0.04245441,-0.24108614,-0.054552775,-0.28335792,0.1265966,-0.1653492,0.036765754,-0.15149182,-0.067277774,0.039312605,-0.17584597,0.066587515],[-0.14164689,0.2336362,-0.1812297,0.07575967,0.26098245,-0.10379228,0.1473951,0.05029933,-0.08606838,-0.09121768,-0.23441558,0.18638055,0.044999957,0.022894518,0.20540543,0.032604862,0.1272313,0.14184703,-0.046537783,0.082306534,0.14701724,0.0477533,-0.11900128,0.05913013,0.06580044,0.014522569,-0.18600233,-0.10688917,0.17149955,-0.002519428,-0.053887703,0.122610405,-0.006508131,0.14522453,-0.102586135,0.05298601,0.282805,0.104027,-0.16909447,-0.11032131,-0.19864814,-0.0046750233,0.08457981,0.015407591,-0.18337171,0.08162225,-0.24136922,-0.1475181,0.06648556,0.007336362,-0.070147045,0.085210316,-0.061056163,0.10047416,-0.3062113,0.14588761,-0.24433842,0.0995754,-0.08687452,0.24251461,0.061364707,-0.18007801,0.18482238,-0.1263604,0.17659894,-0.005306377,-0.109459125,0.25415826,-0.18120705,-0.13062213,0.1374779,-0.09137561,-0.08096786,0.008594304,0.031136982,-0.21990769,-0.16943108,-0.09403314,-0.04599961,0.08457545,-0.12113467,-0.015805706,-0.20873971,-0.0026567494,-0.13825715,-0.14005849,-0.074381374,0.015340488,0.28052998,-0.096821554,0.10145038,0.022459546,-0.14953013,-0.16567925,-0.11638113,-0.13432008,0.17179869,-0.19356516],[-0.038713876,0.014817828,-0.06939059,-0.087548636,-0.21884237,0.090771765,0.015563639,-0.083512895,0.07805409,-0.1081796,0.013190379,-0.0030548784,0.13921718,-0.018098766,-0.105087325,0.07548949,0.20650285,0.023419386,-0.15660541,0.32388684,0.0046954458,0.073023185,-0.05868298,0.14494513,-0.13120931,0.092638746,-0.11732165,0.12830882,0.14569317,-0.002516101,-0.1916985,0.14753099,0.020940408,-0.036735393,-0.05640841,-0.2146942,-0.096653536,-0.11200755,0.00035745508,0.24879679,0.017629197,0.17962123,0.05950696,0.2589856,0.14576866,-0.19115081,0.38707006,0.05228619,0.11898784,0.031133842,0.21141185,-0.0784112,-0.04944025,0.12098015,0.05383686,-0.1366026,-0.0048373407,0.08638066,-0.18802357,-0.01189761,0.19381249,-0.06496779,0.2624569,-0.08887598,-0.27707195,-0.1777591,-0.2745303,0.23869365,0.2768143,0.017967345,-0.009384904,-0.31787735,0.16412875,-0.36374697,0.018508555,-0.084005676,0.03139106,0.2544965,-0.1268425,-0.19919674,0.097898446,0.07894614,-0.23182005,-0.07029836,0.1985237,0.1596216,0.042561788,-0.15150943,-0.039172757,-0.1942991,-0.013289403,0.22103944,0.23643118,0.022161588,0.11883591,-0.25493386,0.26168808,0.051262256],[0.016646856,0.110131584,-0.37097952,-0.035229042,-0.28385034,-0.08530011,0.16286825,-0.11529224,-0.12779962,0.20092356,-0.031145174,-0.13353269,0.11920267,-0.14368236,-0.07528807,0.036138907,0.110569194,-0.06690229,-0.3147734,-0.05309683,0.0056200256,-0.14477533,0.0026208835,0.018187236,0.27605525,-0.0017153851,0.17365701,-0.058684748,0.1352895,0.13493396,-0.09528895,-0.1382434,0.11284905,0.1756364,0.16310802,0.21087743,-0.06802824,-0.19513215,0.0016589699,-0.21578002,-0.08703892,-0.33718592,-0.33782285,0.0022616333,-0.2703908,-0.17537294,0.16186108,0.045568753,-0.0980419,-0.19513029,-0.026052957,0.061542373,0.0107289255,0.09585275,0.21526508,0.052796658,-0.091085784,-0.15062128,-0.06181575,0.10408944,-0.087746166,-0.05807555,0.11006709,-0.1048182,-0.26293817,0.22658548,0.1257933,0.054004908,0.12053165,0.13324408,-0.11539954,0.072110504,0.06425354,0.150039,0.08883308,0.15841135,0.017868133,-0.031055229,-0.01531265,-0.044796508,0.0037665118,0.12972401,-0.10297596,-0.0925198,0.017861014,-0.11632138,-0.23285232,0.0036390128,-0.06684475,-0.17709865,0.054058913,-0.05884579,0.11167271,0.1070821,-0.11561189,0.07318868,-0.24639797,-0.1820004],[-0.2043935,0.11185994,0.14071456,0.007383947,-0.14742185,0.0058497596,0.102561295,0.0666079,-0.13505578,-0.19919536,-0.071815096,-0.037406217,-0.1402072,0.07125117,-0.1289434,0.022465367,-0.22166851,0.2844269,0.16498296,-0.15601027,0.09082156,0.20668775,-0.1499754,0.10393221,-0.055906173,-0.0011668359,0.028002298,-0.28860182,-0.07397248,0.12995219,-0.058837242,-0.094546564,-0.13510118,0.14320777,-0.024259709,0.18378097,-0.11607744,0.1299476,-0.2832035,-0.2209474,-0.109858304,-0.19483472,0.19007614,0.055921085,-0.008923307,-0.10763163,-0.094638474,0.21497265,0.17123656,0.13742584,0.09029709,0.1291815,0.016031384,-0.07271445,-0.08272054,-0.012262544,-0.21514347,0.23858006,-0.023170114,-0.14014345,-0.2908472,0.07386484,0.0798942,-0.13927187,0.0018705066,-0.04205554,0.051475298,-0.30575705,-0.03710948,-0.095325746,0.014263412,0.07808405,0.13772292,-0.11681916,-0.023452086,-0.33443752,-0.12580754,0.1036843,-0.011862593,-0.1720827,0.118131764,-0.03979842,0.111696,-0.12192041,0.05550009,0.14346746,0.34062934,0.3430275,-0.3531367,0.14713266,0.0025444815,-0.0064105415,0.06077119,-0.35415187,0.09014591,0.19293466,-0.18437804,0.12893431],[0.21101044,0.24808775,-0.23987424,-0.07373971,-0.19806299,-0.11653832,-0.03746975,0.03997169,-0.088177554,-0.4783344,0.09698345,0.113440506,0.21423423,-0.22962312,0.06156391,-0.062953465,-0.073488034,0.081080556,0.013054161,-0.032228313,0.0021777675,0.18926534,0.15059416,0.23921365,-0.1822821,0.07347456,0.062425956,-0.08252188,0.19488794,-0.11353612,0.18345502,0.044548426,-0.2660818,-0.11607288,0.0646717,-0.17078139,0.040116586,0.10013306,-0.014416793,0.34976473,0.10409202,0.09084198,0.18309598,0.0532676,-0.13040961,0.22527099,-0.21134597,0.08017505,0.05417566,-0.1394634,0.06362384,0.09948536,0.0664975,0.029112823,0.13066891,0.1459309,-0.034334134,0.06086862,-0.21140417,-0.028776139,0.04955665,0.1302261,-0.021451911,0.067651816,0.0683585,-0.1377575,-0.0690053,-0.10379853,0.007093436,-0.03319964,-0.07214035,0.041281372,0.19645728,0.060274597,-0.046103213,-0.08766649,-0.012011718,0.26442295,-0.15853932,0.11370927,0.24147986,0.40826857,-0.3480323,-0.15212017,-0.0022056904,-0.030907227,0.17692067,-0.06333187,-0.3573442,-0.02586335,-1.3304354e-5,-0.15224715,0.1965861,0.03474887,-0.063806154,0.09518355,0.15617406,0.00093870546],[-0.040226433,-0.10818021,0.11650458,0.1607086,0.20675361,-0.20787837,-0.11964046,-0.07270714,0.009200131,0.33978516,-0.08337571,0.013428981,-0.04645715,-0.023193259,0.2263402,-0.101240166,0.23382379,-0.1232546,-0.013325156,-0.13239947,-0.098663256,-0.090757705,0.1439893,-0.17687678,0.13183978,-0.08922284,0.100345284,0.015197018,0.23828892,-0.22876088,-0.07060947,0.043878525,-0.1057089,0.14376605,0.16796327,0.17558467,0.038590048,-0.23741,-0.27454364,0.09567683,0.24700046,-0.026588444,-0.09212299,0.04569017,0.029360345,0.1460022,0.037148472,0.16767053,-0.13022713,0.016858403,0.035233416,-0.22093043,-0.21764845,0.29898348,0.043056536,0.08301595,0.17630129,-0.07511797,-0.023869203,0.10195512,-0.027418327,-0.098488115,0.18433775,-0.042389605,-0.09641381,-0.13263994,-0.30294153,-0.035211015,-0.02314931,0.35979426,-0.18887058,-0.32196227,-0.08512699,-0.24582025,-0.07645715,0.14411286,-0.062943436,0.2641589,0.26276615,-0.065742195,-0.25744933,-0.18022376,-0.014228819,0.14432316,0.17730157,0.09635313,-0.08385879,-0.010166966,0.09447928,-0.16747889,0.12694632,-0.31249708,0.1015083,0.1950224,-0.19634311,0.17161343,0.041476104,-0.21576518]]},"agent_map":{"0":"Chronicle","4":"Scout","5":"Sentinel","6":"Veritas","2":"Codex","3":"QA","1":"Cipher"}}